0.385746 -0.0340585 -0.473921 0.633061 0.0640697 -0.757652 0.762283 -0.75813 0.585913 0.264682 -0.020783 -0.322017 0.208695 0.524456 0.305242 0.584399 0.0185531 0.591024 -0.235303 0.594647 0.710946 -0.401258 -0.771588 0.583804 0.860203 -0.349637 -0.728227 -0.8738 -0.230107 0.143719 0.706586 -0.623836 0.30936 0.602464 0.735888 -0.00920653 -0.301194 0.45513 0.691748 0.615562 0.164943 0.828072 0.234744 -0.760516 -0.845974 -0.779671 -0.743847 0.149699 0.295452 -0.485781 0.688949 -0.82893 -0.350301 -0.516756 -0.742374 0.2068 -0.751145 -0.00761336 -0.485786 0.695022 0.714635 -0.0366536 -0.455621 0.344334 -0.855481 0.273037 0.346704 -0.902002 0.376279 -0.106677 0.588966 0.983631 0.0521873 -0.571712 -0.0801744 -0.167636 0.449197 -0.807383 -0.556638 -0.483536 -0.991248 0.800863 -0.0542431 -0.0505587 -0.189177 -0.661596 -0.41563 -0.776438 -0.175636 0.589296 0.000391722 -0.871075 -0.619462 -0.770359 -0.892642 -0.582672 0.938495 0.594859 -0.559471 0.397969 -0.0828228 -0.369159 0.186869 -0.523624 -0.0888852 0.650691 0.451832 -0.0799819 -0.368869 -0.0465635 -0.263847 -0.609701 0.232321 0.484941 -0.841265 -0.0295187 -0.0557842 -0.50832 -0.791181 0.867796 -0.976851 -0.618413 0.966058 -0.457697 -0.51503 0.51631 0.901898 0.987566 0.0574589 -0.730732 -0.472081 0.32927 -0.865903 -0.722969 0.716016 -0.667728 -0.595997 0.685299 0.568666 0.30036 0.801404 0.0958856 0.727153 -0.273575 0.493935 -0.710572 0.843247 0.316128 0.629102 0.746382 0.318123 0.358321 0.631755 0.161606 